{
  "layers": [
    {
      "0": {},
      "1": {},
      "2": {}
    },
    {
      "0": {
        "bias": -2.679029087947541,
        "weights": {
          "0": -0.5039287481065927,
          "1": 8.670743715400008,
          "2": -1.4592062041128095
        }
      },
      "1": {
        "bias": -5.640160399528668,
        "weights": {
          "0": 0.20032322239654454,
          "1": 1.6854113476423145,
          "2": 7.804107778428704
        }
      },
      "2": {
        "bias": -3.707035329148091,
        "weights": {
          "0": 8.920957451346847,
          "1": -0.12130516936651246,
          "2": -0.7479071028060725
        }
      }
    },
    {
      "1": {
        "bias": 3.454610286799234,
        "weights": {
          "0": -6.6109973152005725,
          "1": -7.624635415518571,
          "2": -6.7053776006782195
        }
      },
      "2": {
        "bias": -2.5141277812729292,
        "weights": {
          "0": -7.354944867965848,
          "1": 6.298425869134735,
          "2": -6.813208097575228
        }
      },
      "3": {
        "bias": -3.643689703816567,
        "weights": {
          "0": 6.938417033879547,
          "1": -6.867238342413248,
          "2": -6.738086216817345
        }
      },
      "4": {
        "bias": -8.498000028394909,
        "weights": {
          "0": 5.44408182765189,
          "1": 6.08096319710018,
          "2": -6.53769085996306
        }
      },
      "5": {
        "bias": -2.9326338646389556,
        "weights": {
          "0": -6.792741759959155,
          "1": -7.54365316924948,
          "2": 6.287095830064836
        }
      },
      "6": {
        "bias": -8.464450601824804,
        "weights": {
          "0": -7.286124510482868,
          "1": 6.129713986889532,
          "2": 5.764211141252073
        }
      },
      "7": {
        "bias": -9.09241187101217,
        "weights": {
          "0": 6.0940436304447445,
          "1": -6.322155450595449,
          "2": 5.897976348245764
        }
      },
      "8": {
        "bias": -13.108986064009992,
        "weights": {
          "0": 4.899464779150437,
          "1": 5.522376742107446,
          "2": 5.294136774056394
        }
      }
    }
  ],
  "outputLookup": true,
  "inputLookup": false
}